<?xml version='1.0' encoding='UTF-8'?><PMML version="4.3" xmlns="http://www.dmg.org/PMML-4_3" xmlns:xsi="http://www.w3.org/2001/XMLSchema-instance" xsi:schemaLocation="http://www.dmg.org/PMML-4_3 http://www.dmg.org/v4-3/pmml-4-3.xsd"><Header copyright="(c) Copyright IBM Corp. 2011, 2015" description="linearSVM"><Application name="Analytic Framework" version="3.0"/><Timestamp>Mon Nov 6 2:45:11 2017</Timestamp></Header><DataDictionary numberOfFields="5"><DataField name="STATE" displayName="STATE" optype="continuous" dataType="integer"/><DataField name="DEPTNAME" displayName="DEPTNAME" optype="continuous" dataType="integer"/><DataField name="QUANTITY" displayName="QUANTITY" optype="categorical" dataType="string"><Value value="A" property="valid"/><Value value="B" property="valid"/></DataField><DataField name="MGRNO" displayName="MGRNO" optype="continuous" dataType="integer"/><DataField name="AGE" displayName="AGE" optype="continuous" dataType="integer"/></DataDictionary><GeneralRegressionModel modelType="generalLinear" targetVariableName="STATE" algorithmName="linearSVM" functionName="regression"><Extension extender="spss.com" name="sigma" value="0.38288134825117986"/><Extension extender="spss.com" name="percentile" value="1.147010011897924"/><Extension extender="spss.com" name="modelID" value="0"/><Extension extender="spss.com" name="allowMissingFactors" value="true"/><MiningSchema><MiningField name="QUANTITY"/><MiningField name="DEPTNAME" missingValueReplacement="0"/><MiningField name="MGRNO" missingValueReplacement="0"/><MiningField name="AGE" missingValueReplacement="0"/><MiningField name="STATE" usageType="predicted"/></MiningSchema><ModelExplanation><PredictiveModelQuality targetField="STATE" meanSquaredError="0.19367496968633627"/></ModelExplanation><Targets><Target field="STATE" optype="continuous"/></Targets><ParameterList><Parameter label="Intercept" name="P0000000"/><Parameter label="DEPTNAME" name="P0000001"/><Parameter label="MGRNO" name="P0000002"/><Parameter label="AGE" name="P0000003"/><Parameter label="[QUANTITY=A]" name="P0000004"/><Parameter label="[QUANTITY=B]" name="P0000005"/></ParameterList><FactorList><Predictor name="QUANTITY"/></FactorList><CovariateList><Predictor name="DEPTNAME"/><Predictor name="MGRNO"/><Predictor name="AGE"/></CovariateList><PPMatrix><PPCell parameterName="P0000001" predictorName="DEPTNAME" value="1"/><PPCell parameterName="P0000002" predictorName="MGRNO" value="1"/><PPCell parameterName="P0000003" predictorName="AGE" value="1"/><PPCell parameterName="P0000004" predictorName="QUANTITY" value="A"/><PPCell parameterName="P0000005" predictorName="QUANTITY" value="B"/></PPMatrix><ParamMatrix><PCell beta="0.909510378903817" df="1" parameterName="P0000000"/><PCell beta="-0.04285809854055164" df="1" parameterName="P0000001"/><PCell beta="0.1349346785983784" df="1" parameterName="P0000002"/><PCell beta="-0.005692024447007139" df="1" parameterName="P0000003"/><PCell beta="0.022158428087651595" df="1" parameterName="P0000004"/><PCell beta="0.8873519508161654" df="1" parameterName="P0000005"/></ParamMatrix></GeneralRegressionModel></PMML>
